// Auto-generated by ml/train_iiot_hazard_model.py. Do not hand-edit.
export const iiotHazardModel = {"features": ["Temperature", "Pressure", "Vibration", "Fuzzy_PID_Output"], "scalerMean": [79.85117572558202, 105.06441392344026, 34.994637495976164, 0.7431874999999998], "scalerScale": [11.754074390382796, 8.71025055305767, 8.661143423017831, 0.14074698875553254], "W1": [[-0.33642608124242535, 0.08347513840945453, 0.7698475786347373, 0.0577942961878941, -0.4351263286175664, -0.10964195786058901, -0.2980385138635861, 0.18401456158022736, -0.07661404198712539, -0.08734848485723112, -0.42631970632738814, 0.10518519305554011, 0.044134184779341425, 0.08096004303884267, -0.3005890124746747, 0.03026937124815311], [0.11128431735284662, -0.060764996934926235, 0.21781705918638058, -0.008650310816633745, -0.023540505636993912, -0.0662829563508507, -0.20626900867493722, -0.13552101624184268, -0.0763726197256877, -0.055284960996449486, -0.7399744735870428, -0.060608595755436534, -0.054770125568573254, -0.09231541965779726, 0.22639660292016178, -0.050627293203985076], [-0.49821090922884853, -0.0021013436870963324, 0.590702395116843, -0.0018838966450942104, -0.88248303524521, -0.2449913318971384, 0.08342426332275313, 0.18137340006359656, -0.10915001534814035, -0.11507723514808704, -0.8508320488013287, 0.07936760680348035, -0.0032343411721069935, 0.0070538994261460965, -0.17746403710833492, -0.10026292539932101], [-0.3668416284444991, -1.1459049393639913, 0.36664491420769535, 0.4704757416497326, 0.3300630474571161, 0.5979346259176078, -0.12050824484357521, 0.7351090670702146, -1.277519226269593, -1.3740220603510132, -0.18294899520369337, -0.858337077679249, -0.7433692928160973, -1.3617550750124097, 0.6440659574207117, -1.5291433706600142]], "b1": [-0.27615765896413424, -0.16869284627699796, -0.19335758827781344, 0.7860569237450389, -0.04554882240240097, 1.1146980311301666, 0.2782135908964814, -0.2659915629728773, -0.05659279233344647, -0.015390346285688581, 0.41281668518580816, -0.09841819812556467, -0.11074409386018562, -0.21989183452724093, -0.3008738602129733, -0.11601418802863041], "W2": [[0.9355338530392857], [0.8947295145528917], [-0.2971774047343839], [-0.8491856489388271], [-0.35171109124019173], [-0.5438040710014026], [0.03134737817838143], [0.31962136927050383], [1.3355575527025578], [0.7300035742696674], [-0.4423005562301721], [0.9816555946696638], [1.080027864017513], [0.9514894102768986], [0.6511347238244286], [1.1274048419779252]], "b2": [-0.3083905725952846], "metrics": {"accuracy": 0.94, "auc": 0.9061397318278052, "f1": 0.9302325581395349, "testSize": 200}} as const;
