// Auto-generated by ml/train_turbofan_rul_model.py. Do not hand-edit.
export const turbofanRulModel = {"features": ["op1", "s2", "s3", "s4", "s6", "s7", "s8", "s9", "s11", "s12", "s13", "s14", "s15", "s17", "s20", "s21"], "scalerMean": [-8.870146866366145e-06, 642.6809335466046, 1590.5231186079202, 1408.9337816877514, 21.609803208763513, 553.367711211284, 2388.0966516407348, 9065.242940720276, 47.54116814502448, 521.4134700208424, 2388.0961523920314, 8143.752722117203, 8.442145581891328, 393.2106538703892, 38.81627066065629, 23.289705360864716], "scalerScale": [0.0021872604380133807, 0.50004115093577, 6.131000927188836, 9.000386644877734, 0.0013889512497306162, 0.8850708068616238, 0.07098375851045081, 22.082344331737623, 0.26708092559826174, 0.7375355171108342, 0.07191717269564056, 19.075713652092396, 0.037504128992332054, 1.548725489308388, 0.18074204736330857, 0.10824825121269074], "ruCap": 130, "W1": [[-0.057651549313149995, 0.31722094342007967, 0.19265569699081403, 0.1976625441203683, 0.0675979721211555, -0.3404925772216651, -0.28372816925789796, -0.018750312492411575, 0.07817047158738953, 0.12238817516887716, -0.18711820390077158, 0.3203370497072479, 0.43694818443803374, -0.12809463905432833, -0.003888457836216429, -0.1675181891061361, -0.28235996422768855, 0.08039575023609943, -0.05457080859131589, -0.00020565473686194353, 0.13278154416455212, -0.21249145145305312, -0.09539911605786568, 0.07341310683401892, 0.04364846406880431, 0.11630125272668745, -0.08837079361032958, 0.05441107611909004, 0.19541186030627802, -0.26810830829242605, 0.22836444483391294, -0.2534285244738026], [-0.07437022759471669, 0.106209932393048, 0.6008317290505731, 0.2878244358224601, -0.022280938123112246, -0.33896965698641857, 0.052230953413734287, 0.6106080111187029, -0.4996380414458316, -0.1399475147768818, -0.35401015375755795, 0.09106126636913563, -0.15945947771195199, 0.2333660726733939, -0.1225621563775509, -0.14362042436673206, -0.019213374375372308, -0.2393149359679013, 0.4909618550714922, 0.055987083381599925, 0.1668586913609251, 0.4354860012404451, 0.1754152514118787, 0.22732047337696268, -0.1464367562193638, -0.2583673213901142, -0.26249881282842225, -0.13112458985633552, -0.07384143029930855, -0.2718990600897615, 0.33197031586161657, -0.2063326058684808], [0.058695883140274185, -0.08479062826007537, -0.5182143758533158, 0.3712507739238236, -0.21596340313857942, 0.3841719286875764, 0.15562981285327013, 0.4056551541874717, -0.44782578472770945, 0.13097459997772123, 0.01041033542636497, -0.07028626252180781, 0.24800246805460394, -0.11943113392031046, -0.24829236132669086, -0.3377926546000542, -0.015607479762819834, -0.02243205109327982, -0.07218302064212093, -0.18336691115297132, 0.001101881986248588, -0.0387173268513977, 0.10888201191782243, -0.044307174404516196, 0.2349578307133032, -0.0794240441370923, -0.37060051179551623, 0.2692642610185413, 0.20165394943482787, 0.02908736863614059, 0.15391332071138197, -0.1595753710491027], [0.14179106549945103, -0.29982690624880637, -0.4129772875886043, 0.42135349292060026, -0.19173689913174707, 0.12847454889424353, -0.18920794175297811, 0.7810599141657942, 0.16371492762531067, -0.30928305391817895, -0.21955157870056413, -0.04051320284775513, -0.19348415195931287, 0.010254219741915307, -0.15280715108829576, -0.2702911544081993, 0.18717076599589694, 0.2603149156580841, 0.22118939338382212, 0.07558641528470127, 0.12536147696196573, -0.2132077138789787, 0.34999804147527214, -0.17019790077599142, 0.19582830037282345, 0.3958659385089586, -0.21306211107550097, -0.35687254743924934, -0.2216867592511593, 0.06805075911152002, 0.1604795058678435, -0.054529191661995956], [-0.469775168529122, 0.05685520151342117, 1.0513900311612856, 0.07512565774984746, -0.361341644010669, 0.9349659075698827, 1.3385410461210887, 0.06350379784838815, 0.1610006425347931, 0.7867380763432287, -0.11000157117756217, 1.3936204473759621, 1.2516370678783788, -0.17048775523953041, -0.24569122856296904, -0.2918746118549517, -0.35415773067426676, -0.3158067223410041, 1.0117012842884792, 0.5330413379724229, -0.2302814591517298, -0.3438080511817925, 1.3116206820038019, -0.2534942662397157, -0.16285405197497616, 0.8235279437279757, 0.8535616854203821, -0.15373154706960657, 1.187206756771212, 1.2545247328615727, -0.286857326206167, 0.8879448140871464], [-0.09709465796667943, 0.3930027268267623, -0.017769494021002447, -0.6231345699677144, -0.4096542849649627, 0.33509546336089496, -0.12283420968318026, -0.7325260166548269, -0.2123395362218809, 0.1749666692488522, 0.2615068710776385, -0.20152288288790157, -0.11440815419269292, -0.2384674423260127, 0.2010949185162449, -0.01912772798542995, 0.24800037367553596, -0.08372640593379752, 0.20740052536605327, -0.09242988005255123, 0.08178862720748144, -0.14011928612274194, 0.34921358192653784, 0.33074613306650064, -0.0869475324259177, -0.05126440626405572, 0.22659163265366092, 0.015314648924564855, 0.01643704365377178, -0.21982259643685959, -0.24288024179830994, 0.2801802347462281], [0.330205323717487, -0.11891962424287347, -0.04595041414427152, 0.6066961639083123, 0.31306617673846693, 0.36393859684375107, 0.14002130035514956, 0.7775291670312852, -0.12432805333879578, -0.3506638703796206, -0.31872108117175524, 0.08368314020511913, 0.028122396003733882, -0.30032946462451354, -0.3574947123445893, 0.015638036012464933, -0.4175024647690891, -0.3302963352315709, 0.10640781349179537, 0.031843175436158645, 0.018610689940887853, -0.1376524788721615, 0.05813963118542169, -0.2478757159048504, -0.13952315794754222, 0.18515257820695213, -0.1051035032007943, 0.34903449932743075, 0.13403299177096956, 0.018694333233949756, -0.30340718992299703, -0.3166999304276737], [-0.7364242812657238, -0.5266286750600017, 0.5901415483309845, -0.28355764178040166, -0.2424181701520517, -0.021312311600983, -0.037336521024596676, 0.4458540507072779, -0.02982028942096577, -0.2304695029974964, -0.5028357083079308, -0.16119953078208743, -0.15525236329603287, -0.3591410152692144, 0.7310575267819385, -0.5634455848505575, 0.31637497284592964, 0.3572515485040287, 0.4242602141999315, -0.526088753312233, -0.7351729867483068, 0.4418442372779753, -0.20542269457661735, 0.09418296697722842, 0.6258179970474543, 0.32631948020801227, -0.698927278285554, -0.6718731531130588, 0.23296430874017499, -0.026604614164693265, -0.5857431614217771, -0.24489879940452422], [0.2360606856454818, -0.16275101010054302, 0.03825356402826546, 0.5507140983714214, 0.06490140885788605, 0.35992579213182285, -0.4352811465522427, 0.8721470857646507, -0.04770204977055354, -0.034034254717651154, -0.06664651546909453, -0.0581093948337122, -0.0775380701543121, -0.06257916649337608, 0.12368216679240275, 0.11013468447638196, 0.18009954589427374, 0.14422980964072105, 0.1703593433632224, -0.14689647037293987, 0.02827273513287652, -0.1123129419519676, 0.13946843226214786, 0.1848699971853623, 0.17242578241503714, -0.05400312891501974, -0.1334409112748242, -0.3414537370110155, 0.0013407025696970053, -0.42952187837214123, -0.42100678297452176, -0.1640797848060653], [-0.3304932190364287, 0.22537186781123134, -0.3297104172024202, -0.8569753395758013, 0.20979654475358678, 0.008150551556765454, -0.09151003573976584, -0.777660527689142, 0.18237790319746136, -0.1348530690149182, 0.18069057160329202, -0.06169555617341379, -0.2964108734793335, -0.06613162571128588, 0.16767000194697404, 0.26587764584274587, 0.3944231131817182, 0.4851821344486716, -0.025843696769964068, -0.02213775744122107, 0.36064602695558257, 0.03786406866524042, -0.03352347963809805, -0.2009911389907663, -0.1333775801931359, 0.44467636221760226, 0.3438017763899108, 0.302391435544903, 0.05907934830679383, -0.13964973372378223, 0.004817380417345877, -0.035939380518772455], [0.2148154742727422, -0.0753627347205507, 0.03369323463481412, 0.8125401508663571, 0.533822940115311, 0.28287573972025054, -0.004663051533781173, 0.9518321523289899, -0.24851547318244951, -0.20629453734166606, -0.18233294228749328, 0.15672791788720658, -0.3540323654395599, -0.16677787113463807, -0.28860933725678356, -0.3649819040358983, 0.34981308257300664, 0.042752169893036214, 0.07847473950336945, -0.24050110036130828, -0.05853923262043263, -0.04814917710563931, -0.16085910156015545, -0.13863529298641392, -0.1432167069968371, 0.002175736761898433, 0.029587088215297052, -0.5215329187069655, 0.027826035702366747, 0.23906132368741576, 0.10203251097161622, 0.04853525375480902], [-0.41982728074583586, -0.47008468799750663, 0.1214981942567849, -0.6447868009035267, -0.819935792458504, 0.013298523829249776, 0.1958790007455916, 0.02181786094885478, -0.18500647103430437, -0.11858089606451713, -0.268449786835689, -0.1560200040272432, 0.33201241850970165, -0.18052509926294266, 0.9142472054546078, -0.10701278843604044, -0.26366326824063085, -0.22676770379236308, -0.06549169745252154, -0.7874655707269079, -0.6229746509866315, 0.17286609030391428, -0.36339462665714223, -0.2893270134890852, 0.7045746412038626, -0.2932220111566391, -0.2958652771612205, -0.5655497774714721, -0.19414838981022758, 0.31355567221026187, -0.10471888528972693, 0.05070919040500165], [0.28046491210191654, -0.04767057698463947, -0.36272230713322895, 0.45315017701756605, 0.33698820156882947, 0.262534278324436, 0.13779957757752312, 0.8024950103361338, -0.42962706761088104, 0.2103580066353886, -0.23415084410607664, 0.05386819041665515, 0.22641275849116183, 0.11734036105638555, 0.17309585818921586, -0.051595892686665194, -0.156355975859365, 0.18185631222133644, 0.07687821623573746, 0.14395532425854124, -0.2696224195179166, 0.29179757363199393, -0.28477107359706905, -0.3749790872379534, 0.09904961004670877, -0.2490646631309176, -0.4039734391409005, 0.13159569936445686, 0.3239313468654418, -0.08875348160298865, -0.2128025582147184, -0.19914803769464295], [-0.15585886290315187, -0.2362258322674052, 0.028845170570481492, 0.3212488499473692, 0.6009372587871468, 0.17302608922418403, -0.5813855133208808, 0.5504256767597066, -0.5215333230113123, -0.13743543651430717, 0.04860219055592513, 0.01699024616438517, -0.2031615143976533, -0.1910858590744841, -0.2013469293642092, 0.21245247616225765, 0.10315370929525428, -0.35694382751728865, -0.28075241348713603, 0.2265696388621944, -0.22991370453737492, 0.16367018678964054, 0.11390140410393809, -0.3642590359001503, -0.21990837794852441, 0.41992001834845516, -0.2458945811473866, -0.14454131875027496, 0.26633143219821526, 0.51506480438082, 0.6982118495416838, 0.023988593810468643], [0.01300084398944352, -0.0927115828126653, 0.10636812747987134, -0.43705726995857697, -0.18607519888144675, 0.46617446953296715, -0.23633299196875798, -0.3556274614993543, -0.31272982882541894, 0.11693655436873317, -0.11930370359424511, -0.031713331100855016, -0.2642801538700343, -0.06645387892917987, 0.22664984732595775, 0.11139968204152892, 0.4581694137874456, 0.16058365158695026, -0.1798354114923162, 0.270701933179237, -0.10421249561137061, 0.5514112346465689, -0.33615379953339275, 0.4077276900558086, -0.21566342444970132, 0.27698093969402343, 0.17659057450767368, 0.424979380362114, -0.3255474090832408, -0.0480665999410378, 0.4083718957857064, 0.15980894609433197], [0.05456096547910909, 0.10678073224364523, -0.13855365812969442, -0.06385065567785521, 0.14419967354955526, 0.3322204494543961, -0.6323001536353735, -0.6166363668506377, 0.16453639120678404, 0.2857222735341714, -0.024873693894744076, 0.18485630483204904, -0.3165788744895348, -0.5477490703775266, 0.08194005206196667, -0.02051281663970781, 0.2489568003830224, -0.2798375227881447, 0.3652703074735517, 0.17753104013126456, -0.13378567107253547, 0.31716149156015916, -0.16095422564297915, 0.22708559663372507, -0.06313292567121313, -0.27645199547399085, 0.24568253264455464, 0.23382408291162293, 0.3643921906240987, 0.1320617895174673, 0.17671151204773067, -0.027968671954808268]], "b1": [1.1462043447463885, 0.9508881711731737, 0.9503669329743594, -1.7600379198944391, 0.7559741203868972, 1.3118230490929814, 1.369916508279672, -1.3795929252493455, 0.7409538389155733, 0.7182755951902359, 1.060583264497578, 1.301939366973776, 1.1696479740888133, 0.755973765179964, 0.4954595636544294, 0.5425952778618096, 0.5112410035218828, 1.0387491797796518, 1.1913232017026043, 1.1640198139998328, 1.1216058373256397, 0.9227013139897249, 1.2131405414488934, 1.0293059101452906, 1.6592810335786055, 0.8483904491793541, 0.5705974852095662, 0.5525807875617172, 1.387299737527969, 1.1446133260399858, 1.014338363835474, 0.872107476777865], "W2": [[0.01958585996570791, -0.15339284278258034, -1.1224959682466564e-128, 0.28635721767435734, -0.0588820468102858, 0.7877573771107698, -0.08188370092530192, 0.8469655151566637, 0.5194113144327337, -0.11414113763535169, 0.23306725196677588, 0.47069774727508173, 0.17651705275640345, 0.43070609936543996, 0.9005883409556557, -0.2434504720229427], [0.07255883723939652, -0.25806307018774144, -4.192165866988379e-131, -0.585229498827851, -0.5153234095725265, 0.38852438563424313, -0.05692908298255261, 0.28301987964990116, 0.6286663030751334, -0.5434118390547252, -0.042180388035639844, 0.5202728165710708, 0.2352874124519415, 0.36233526268671234, 0.6280848011337226, -0.047116628796546656], [-0.33699149715954463, 0.24850272115861918, -2.5131332673370468e-180, -0.4296306507907338, 0.38048363664378426, 1.1499755422149354, -0.07634879583157742, 0.7514291122732091, 0.9024028227336173, 0.721490533231786, -0.3307798513878414, 0.4766540813725065, 0.500561344441545, 0.6730271347617084, 0.7020704854119574, 0.5015399967363909], [-0.36020393969630526, -0.13973219958018943, -1.868210088799071e-127, -0.7451376899906422, -1.3659670135121398, -1.072216129931383, -0.3795379860285258, -1.1318315855743997, -1.5517748380160048, -1.2094346415672284, -0.2571726239822688, -1.1958124820661273, -1.451463338538756, -1.0521123704819666, -0.9598409479645228, -0.5771836803132039], [-0.07177501248790467, 0.07389763556601121, 2.6748326166034404e-119, 0.4791083234238583, -0.020749929223487555, 0.16765267894299138, 0.28272559026576716, 0.7775138870280313, 0.020602196065739486, -0.07907399514673405, 0.17895926768068773, 0.6113765867475133, 0.08542488896353992, 0.3699634029805186, 0.49574178786199613, -0.22786533176199264], [-0.0027416296147700883, -0.14401609387892308, 1.4304452525456699e-176, 0.37686220451104724, 0.08738409310648759, 0.49223845129782967, 0.06499005113187124, 0.924938397429521, 0.6428526535047168, 0.18643920824229637, -0.3214693590634558, 0.5768243609856676, 0.5763154941897762, 0.6526774649391763, 0.6103537320826997, -0.025905651516972158], [-0.4141876434603855, -0.18093545874502312, 1.6734700648983744e-141, 0.20333675306157611, 0.10555709800689465, 0.9967028338245175, 0.08685291531591825, 0.8070935351223434, 0.9792844131778681, 0.249066734325976, -0.3310845336152512, 0.6681512525104086, 0.7103887514767283, 1.082002868250235, 0.7843186410131423, -0.03705506327625277], [-0.26760014234238094, -0.12380407710698899, 7.339963246641774e-163, -0.3660765137789985, -1.405938150351285, -0.45274196139145567, -0.12453627506574345, -0.9664587418210969, -1.6483803173365472, -0.8198090740563339, -0.1820225033979045, -1.1583077882254864, -1.362109350942738, -1.1033899164603582, -0.915642759782079, -0.009547385977103258], [-0.35059299956296697, -0.05129660715231172, -2.3595610428814164e-170, 0.019812306992199588, -0.2445285002809969, 0.213627283953706, 0.22782604806865733, 0.5589445629207984, 0.521325935273999, -0.20037907417460835, -0.2849707845541079, 0.40223762159353815, 0.5843025008459585, 0.21818373716985745, 0.3722784687494791, -0.02930791645290766], [0.09377492706762526, -0.2924748609904366, -6.407787298836947e-158, -0.5084328635032541, 0.029652657727096535, 0.0903928670210249, -0.32651496287172965, 0.3742213761401588, 0.13225401857323105, -0.09738800606312388, -0.3108715384562415, 0.2555041505056426, 0.29222681971723546, -0.1697329637270505, 0.18479551646712827, -0.48532084682823684], [-0.3508607837872645, 0.27650297142451463, -3.6249785447997718e-158, 0.20511509576129322, -0.6944792344488478, 0.4145007217523977, 0.13821930541345676, 0.3800640403395718, 0.28213244436272183, -0.48868373406862176, -0.16306469111725097, 0.5769314907161085, 0.5063039026955568, 0.5855418920694894, 0.07375699020558833, -0.10202682193480761], [0.19332470151981046, -0.26068939838414085, 2.1364084479084202e-122, 0.01215489352439964, -0.012285331608839644, 0.8299059648937978, -0.7628710311801445, 0.7614970152069261, 0.2688109537530379, -0.30861071131729867, -0.2701024555904438, 0.7251162833203167, 0.504556593382196, 0.79069151725453, 0.6108558849615005, -0.054966699241622195], [-0.1724409497167492, 0.17621504497178075, 5.711307988611442e-174, -0.440258690800506, 0.28778301082909347, 0.49518038888789034, 0.21159652556179473, 0.6295064438858254, 0.41370615171300884, 0.3699961131975837, -0.1096453305693064, 0.6003606380127392, 0.8370569412027701, 0.8049676955750108, 0.45956292316346814, 0.4360658481297365], [0.05437401767551548, -0.17080116971570597, -1.3874208758291014e-131, 0.13734488562803335, -0.3620274979559123, 0.3049510402577661, 0.16903842896628674, 0.5603016834048218, 0.06553832477303378, -0.4128817709244136, -0.21634179432874226, 0.43134466386041287, -0.044728896111592184, 0.2998980054545114, 0.5721944850895921, 0.03428412269617154], [-0.16207301061297522, 0.16523620746849182, 5.597434501939097e-128, 0.2066496745269502, 0.2707183542421787, 0.22781410844790384, 0.31978715724843915, 0.08601936638986629, 0.12453556651031426, 0.37331442130336123, 0.10671588371973181, 0.37638201595769694, 0.4267519888539233, 0.2217196993410516, 0.17282410231938275, 0.10082607113088464], [-0.2553848798552383, 0.1908705373889984, -1.871623224697882e-171, -0.10967005942082325, -0.19029034747272894, 0.5310427274910386, -0.3246876601156146, 0.2919680813882825, 0.22511706086783437, -0.06402816377007182, -0.4144352078089252, 0.4832494682485752, 0.5314685379698431, 0.07453247048147153, 0.36725328435294624, 0.23141664395614464], [0.0819737560643088, -0.33156765790361775, -4.7980537045604406e-172, 0.2695704394962586, 0.2153283428373902, 0.3974412850733404, 0.3067211833517717, 0.5490845420373839, 0.21804748446293531, 0.0016661662873757547, 0.26474210081294103, 0.47633959431834105, -0.014526568246695239, 0.333749971189507, 0.5048656547363376, 0.19215868155070429], [0.018099630127768346, -0.14339646477229356, -4.930103962472767e-121, -0.05599337370153805, 0.11439615974558409, 0.0807324323163318, -0.16584405112088607, 0.35613386343020376, 0.4593706745160073, -0.02864450515622558, -0.19488914536547927, 0.2981387694764053, 0.5749750783783463, 0.411875286651139, 0.29054762799192246, -0.08880237586853947], [-0.31461203336247784, -0.2714224139238151, -1.5622065397139985e-180, 0.02218714848708027, 0.5417046784684069, 0.564467087504252, -0.031370815669290654, 0.8037608654418146, 0.26011765329504843, 0.47306382999140334, -0.26547384914022776, 0.9178441958581364, 0.3197530900500259, 0.7646877487859239, 0.519867815578043, 0.5358026970503014], [-0.05996957535795667, -0.0010559660626038808, 1.6415161792684016e-122, 0.03817367544351304, -0.5778894996779963, 0.6556397409529572, -0.2945298387204396, 0.1707673077881227, 0.046915366808191486, -0.32334616039235226, -0.00719898704844798, 0.06144896831278128, 0.5230182308603115, 0.3746828709981115, 0.45767863039174383, -0.5120573105196203], [-0.13437724625574532, -0.024231716817395606, -1.6655188315671121e-133, -0.3372213721393059, -0.34006941749746533, 0.643287315288013, -0.17925143353310774, 0.1835086267313243, 0.4376313769633198, -0.6039949386997425, -0.3971829197392656, 0.07667715585169639, 0.4535603166186982, 0.43957841601550224, 0.05466802054133978, -0.5920877105911908], [-0.24309828151940427, 0.021760132664984905, 5.328648477706938e-117, -0.17631608290385356, 0.6102482016816992, 0.1743552257238606, -0.002903314589652805, 0.21663858788362797, 0.1652467384741461, 0.5815706949182293, 0.07895398712868217, 0.646466485760458, 0.663007361076044, 0.298323818826719, 0.5591455603179875, 0.10213509218894021], [-0.2226900741979647, 0.2256612389605998, 1.9978859527010302e-116, -0.428635782893542, -0.16060704188242864, 0.45837766759361065, -0.3905785222565459, 0.8311384170503524, 0.6762811620930982, 0.2821074181743191, 0.1857425679851228, 0.6096438953638551, 0.4559684073765364, 0.8844135822205763, 0.9987245856017367, -0.24938695116959106], [0.01568811076777671, -0.13266282499993848, -7.278454287907145e-175, -0.2048355880794904, -0.21172593954971608, 0.6079221885737517, 0.11648291789437716, 0.07868901309789879, 0.5569280558346804, -0.06962491652636602, 0.22008643459072072, 0.48930231683838954, 0.22814409392721727, -0.05271306969926387, 0.18163437221365794, -0.08774816811248498], [-0.006996086696128289, -0.23592535504087847, -1.3184407688798448e-131, 0.44375361742655284, 1.4930558898964696, 0.9749773985220034, -0.15564589328697123, 0.7529495898720548, 0.506685658903398, 1.3588629837421689, -0.346502807484757, 0.8713238833198746, 0.6498734365981648, 1.1527315705688996, 1.1886756112615438, 1.2207308593906807], [-0.30849606605787916, -0.40216230716250173, -3.7227326080488525e-131, 0.16397865448482854, 0.3190051274503594, 0.5365684331324928, -0.0015987802289760054, 0.610710640460677, 0.1882251215591889, 0.05507701279423324, -0.1018419152546112, 0.3592282433408552, 0.4008277762527797, 0.14479510623747827, 0.3155616332610273, 0.1414928745646479], [-0.3322851383560849, 0.004411245680593694, 3.0176468201043777e-146, -0.05514914833011523, -0.5589885539981075, 0.09875155642819405, 0.1300487174449912, 0.09998223848807239, 0.26484016495501744, -0.2928921066210162, 0.06275335567031554, 0.5093814424950174, 0.369795278855633, -0.14718132563835404, -0.09166224871239823, -0.26524372387505085], [0.017944252424745847, -0.3843707558628343, -1.6959924607274573e-180, -0.12518191568277948, -0.7398008708841961, 0.37316167212382917, -0.3273042059473878, -0.07434879738449876, 0.36668191681390316, -0.6191798963270025, 0.07893112307982925, 0.14273351170720217, 0.019175045949623656, 0.20001341441895637, 0.4130708548543139, -0.33468051787855657], [-0.2700554258762359, 0.013298871485916032, 1.9220763530425643e-163, -0.3196832077405341, 0.4300114446059084, 0.49122751288170396, 0.2257680559498162, 0.6852072180905607, 0.4566045041433789, 0.1841280893500681, 0.23325965211938746, 0.8498352182590027, 0.8336676771456324, 1.0177974302029618, 0.9930008334078897, 0.1974693179563863], [-0.24692579452240995, -0.06633965089468256, -1.1858948027038252e-142, 0.41939597345881013, 0.5066573891552754, 0.3880169587948144, 0.06217190162225995, 1.0057042709352821, 0.4935979407782172, 0.3957043871079651, 0.25379050818405036, 0.3581076465870438, 0.7893652127642548, 0.7026196230236345, 1.1147793762838893, 0.44401314568406286], [0.1589394625676611, -0.06374146692628431, 2.626468017214385e-131, -0.28637235375914744, -0.13030060624205458, 0.8682617294063576, -0.7357474649639928, 0.7059251866969833, 0.2761741816245382, 0.0914968335468831, -0.343424884620991, 0.7149233559276561, 0.340468997334027, 0.8980741101650476, 0.43157793892097324, -0.419815013782589], [-0.009112111228851017, 0.10974022049017453, 4.295283333567402e-157, 0.1008834335311901, 0.1290508666763243, 0.4672258730099736, -0.2398935527007423, 0.04502805286713795, 0.6627293610995468, -0.49929682496763467, 0.17790913734641486, 0.38988729177680054, 0.6770222377372477, 0.5944100003919571, 0.7749331937060605, -0.2783157436291773]], "b2": [0.08563401686906993, -0.13019730316314937, -0.01423008535027892, 0.050936153811158395, 0.4997495292791715, 0.8907369955782619, 0.10382520767241857, 0.5226455562765357, 0.4680765528746864, 0.29596593287684786, -0.2336965337378738, 0.20577292434259195, 0.34743805824918356, 0.6692723531455991, 0.548872793780085, -0.2023495798446175], "W3": [[-0.4652421952457084], [-0.5167291662290615], [-2.1091122537140078e-86], [-0.6546272475391633], [-1.8238459248038819], [0.708450102317653], [-0.3950599935608024], [1.1779998641618512], [0.9177909483056478], [-2.226345188671095], [-0.04398892510100944], [0.9474481674520112], [1.0508306893887365], [0.682863632865506], [0.7745533089309314], [-1.384783260348482]], "b3": [0.9706933465534435], "metrics": {"rmse": 18.33854959934697, "mae": 13.178586395439758, "testUnits": 100}} as const;
